digraph Tree {
node [shape=box, style="filled, rounded", color="black", fontname=helvetica] ;
edge [fontname=helvetica] ;
0 [label="sex_1 <= 0.5\ngini = 0.48\nsamples = 100.0%\nvalue = [0.41, 0.59]\nclass = disease", fillcolor="#c2e1f7"] ;
1 [label="ca <= 1.5\n0.33\n33.8%\n[0.21, 0.79]\ndisease", fillcolor="#6db7ec"] ;
0 -> 1 [labeldistance=2.5, labelangle=45, headlabel="True"] ;
2 [label="exang_1 <= 0.5\n0.19\n27.8%\n[0.11, 0.89]\ndisease", fillcolor="#51a9e8"] ;
1 -> 2 ;
3 [label="0.0\n22.5%\n[0.0, 1.0]\ndisease", fillcolor="#399de5"] ;
2 -> 3 ;
4 [label="thal_2 <= 0.5\n0.5\n5.3%\n[0.5, 0.5]\ndisease", fillcolor="#ffffff"] ;
2 -> 4 ;
5 [label="0.0\n2.6%\n[1.0, 0.0]\ndisease", fillcolor="#e58139"] ;
4 -> 5 ;
6 [label="0.0\n2.6%\n[0.0, 1.0]\ndisease", fillcolor="#399de5"] ;
4 -> 6 ;
7 [label="oldpeak <= 0.7\n0.46\n6.0%\n[0.65, 0.35]\ndisease", fillcolor="#f3c6a5"] ;
1 -> 7 ;
8 [label="restecg_0 <= 0.5\n0.44\n2.6%\n[0.33, 0.67]\ndisease", fillcolor="#9ccef2"] ;
7 -> 8 ;
9 [label="0.0\n2.0%\n[0.0, 1.0]\ndisease", fillcolor="#399de5"] ;
8 -> 9 ;
10 [label="0.0\n0.7%\n[1.0, 0.0]\ndisease", fillcolor="#e58139"] ;
8 -> 10 ;
11 [label="0.0\n3.3%\n[1.0, 0.0]\ndisease", fillcolor="#e58139"] ;
7 -> 11 ;
12 [label="cp_0 <= 0.5\n0.5\n66.2%\n[0.53, 0.47]\ndisease", fillcolor="#fcf1e9"] ;
0 -> 12 [labeldistance=2.5, labelangle=-45, headlabel="False"] ;
13 [label="slope_1 <= 0.5\n0.42\n32.5%\n[0.31, 0.69]\ndisease", fillcolor="#90c8f0"] ;
12 -> 13 ;
14 [label="trestbps <= 155.0\n0.3\n20.5%\n[0.19, 0.81]\ndisease", fillcolor="#67b4eb"] ;
13 -> 14 ;
15 [label="oldpeak <= 2.75\n0.17\n19.2%\n[0.09, 0.91]\ndisease", fillcolor="#4da7e8"] ;
14 -> 15 ;
16 [label="0.09\n17.9%\n[0.05, 0.95]\ndisease", fillcolor="#43a2e6"] ;
15 -> 16 ;
17 [label="0.44\n1.3%\n[0.67, 0.33]\ndisease", fillcolor="#f2c09c"] ;
15 -> 17 ;
18 [label="0.0\n1.3%\n[1.0, 0.0]\ndisease", fillcolor="#e58139"] ;
14 -> 18 ;
19 [label="age <= 54.0\n0.5\n11.9%\n[0.54, 0.46]\ndisease", fillcolor="#fbece1"] ;
13 -> 19 ;
20 [label="cp_3 <= 0.5\n0.24\n2.6%\n[0.14, 0.86]\ndisease", fillcolor="#5aade9"] ;
19 -> 20 ;
21 [label="0.38\n2.0%\n[0.25, 0.75]\ndisease", fillcolor="#7bbeee"] ;
20 -> 21 ;
22 [label="0.0\n0.7%\n[0.0, 1.0]\ndisease", fillcolor="#399de5"] ;
20 -> 22 ;
23 [label="restecg_1 <= 0.5\n0.42\n9.3%\n[0.71, 0.29]\ndisease", fillcolor="#f0b58b"] ;
19 -> 23 ;
24 [label="0.48\n6.0%\n[0.6, 0.4]\ndisease", fillcolor="#f6d5bd"] ;
23 -> 24 ;
25 [label="0.24\n3.3%\n[0.86, 0.14]\ndisease", fillcolor="#e9965a"] ;
23 -> 25 ;
26 [label="ca <= 0.5\n0.39\n33.8%\n[0.73, 0.27]\ndisease", fillcolor="#eeaf81"] ;
12 -> 26 ;
27 [label="exang_1 <= 0.5\n0.5\n14.6%\n[0.45, 0.55]\ndisease", fillcolor="#dceefa"] ;
26 -> 27 ;
28 [label="age <= 42.0\n0.22\n6.6%\n[0.12, 0.88]\ndisease", fillcolor="#55abe9"] ;
27 -> 28 ;
29 [label="0.0\n1.3%\n[1.0, 0.0]\ndisease", fillcolor="#e58139"] ;
28 -> 29 ;
30 [label="0.0\n5.3%\n[0.0, 1.0]\ndisease", fillcolor="#399de5"] ;
28 -> 30 ;
31 [label="thal_2 <= 0.5\n0.32\n7.9%\n[0.8, 0.2]\ndisease", fillcolor="#eca06a"] ;
27 -> 31 ;
32 [label="0.24\n7.3%\n[0.86, 0.14]\ndisease", fillcolor="#e9965a"] ;
31 -> 32 ;
33 [label="0.0\n0.7%\n[0.0, 1.0]\ndisease", fillcolor="#399de5"] ;
31 -> 33 ;
34 [label="ca <= 1.5\n0.15\n19.2%\n[0.92, 0.08]\ndisease", fillcolor="#e78c4b"] ;
26 -> 34 ;
35 [label="oldpeak <= 0.7\n0.32\n7.9%\n[0.8, 0.2]\ndisease", fillcolor="#eca06a"] ;
34 -> 35 ;
36 [label="0.48\n3.3%\n[0.6, 0.4]\ndisease", fillcolor="#f6d5bd"] ;
35 -> 36 ;
37 [label="0.0\n4.6%\n[1.0, 0.0]\ndisease", fillcolor="#e58139"] ;
35 -> 37 ;
38 [label="0.0\n11.3%\n[1.0, 0.0]\ndisease", fillcolor="#e58139"] ;
34 -> 38 ;
}